digraph Tree {
node [shape=box, style="filled", color="black"] ;
0 [label="X[0] <= -1.0\nmse = 19.9161\nsamples = 7\nvalue = -0.0", fillcolor="#e5813980"] ;
1 [label="X[0] <= -1.6667\nmse = 7.9232\nsamples = 2\nvalue = -5.1852", fillcolor="#e581392d"] ;
0 -> 1 [labeldistance=2.5, labelangle=45, headlabel="True"] ;
2 [label="mse = 0.0\nsamples = 1\nvalue = -8.0", fillcolor="#e5813900"] ;
1 -> 2 ;
3 [label="mse = 0.0\nsamples = 1\nvalue = -2.3704", fillcolor="#e581395a"] ;
1 -> 3 ;
4 [label="X[0] <= 1.6667\nmse = 9.6571\nsamples = 5\nvalue = 2.0741", fillcolor="#e58139a1"] ;
0 -> 4 [labeldistance=2.5, labelangle=-45, headlabel="False"] ;
5 [label="mse = 1.0974\nsamples = 4\nvalue = 0.5926", fillcolor="#e5813989"] ;
4 -> 5 ;
6 [label="mse = -0.0\nsamples = 1\nvalue = 8.0", fillcolor="#e58139ff"] ;
4 -> 6 ;
}